%YAML:1.0
---
myHogDector: !!opencv-object-detector-hog
   winSize: [ 64, 128 ]
   blockSize: [ 16, 16 ]
   blockStride: [ 8, 8 ]
   cellSize: [ 8, 8 ]
   nbins: 9
   derivAperture: 1
   winSigma: 4.
   histogramNormType: 0
   L2HysThreshold: 2.0000000000000001e-01
   gammaCorrection: 1
   nlevels: 64
   signedGradient: 0
   SVMDetector: [ 1.61190619e-04, -1.85194053e-02, -1.46117099e-02,
       1.00529576e-02, 1.43827684e-02, 3.86045640e-03, 8.48505832e-03,
       -2.49834713e-02, -1.82120642e-03, 2.01607533e-02, -6.06903050e-05,
       7.32423365e-03, 7.77970580e-03, 4.57290486e-02, 3.06576807e-02,
       1.46511858e-02, 1.51636191e-02, 1.96015742e-03, 1.07970992e-02,
       -1.28565617e-02, -2.82116188e-03, 3.02032270e-02, 2.37916354e-02,
       6.06063101e-03, 8.09072331e-03, -1.65008139e-02, -9.68704000e-03,
       -5.95162250e-03, -1.24531484e-03, 3.37000713e-02, 5.70535399e-02,
       3.71752237e-03, 1.69834364e-02, -1.41991703e-02, -4.44453210e-03,
       -2.76067704e-02, 1.74326859e-02, -3.94981384e-04, 1.13830238e-03,
       -5.71333850e-03, 1.51631571e-02, 6.53118221e-03, -6.87105255e-03,
       1.35938618e-02, 2.72735823e-02, 3.52244787e-02, -1.27386982e-02,
       -1.92338508e-02, -6.01718295e-03, -2.43791807e-02, 1.66038014e-02,
       1.21398382e-02, 3.27558368e-02, 2.72853207e-02, 1.51296873e-02,
       1.47842960e-02, 1.23048257e-02, 2.83988807e-02, 9.31226183e-04,
       1.61527451e-02, -1.38656637e-02, -2.23505078e-03, -5.78492973e-03,
       2.60190889e-02, 1.26536479e-02, -1.38974274e-02, 2.90595111e-03,
       -2.26996839e-02, 8.25776905e-03, -3.93486908e-03, 3.64469201e-03,
       1.88120268e-02, 1.51435556e-02, -4.44470393e-03, 1.84086878e-02,
       -2.48034048e-04, -1.51972994e-02, 4.78270510e-03, 1.60487238e-02,
       1.56121822e-02, -4.66282386e-03, 1.43161276e-02, 1.62575692e-02,
       -3.50741018e-03, 1.07649527e-02, 2.29791626e-02, 3.48583758e-02,
       -2.70699034e-03, 1.30007481e-02, 2.58122794e-02, 8.18209071e-03,
       -1.15397175e-04, 9.95422248e-03, -3.47801630e-04, -3.55994925e-02,
       -1.98015869e-02, -3.92358052e-03, 6.77678967e-03, 2.29433551e-02,
       5.75443078e-03, -3.86090064e-03, -1.04940934e-02, 5.90805546e-04,
       1.42804638e-03, 8.22037365e-03, 2.53685452e-02, 2.04733349e-02,
       1.24481469e-02, 1.06090913e-02, 1.60415377e-02, -2.52336431e-02,
       -2.42663547e-03, 2.35001370e-02, 1.03221601e-02, -8.55325721e-03,
       -5.68820862e-03, -1.59381740e-02, -8.43742304e-03, 5.78619679e-03,
       -3.10710948e-02, -2.70827226e-02, -3.46209807e-03,
       -1.09554958e-02, -3.08762770e-02, -1.38226300e-02,
       -7.89090898e-03, 8.31599999e-03, 7.82213826e-03, -2.25473172e-03,
       1.40337078e-02, 1.21488627e-02, -3.98786506e-03, 9.52795206e-04,
       3.43293473e-02, -8.13161896e-04, -1.63619220e-02, 1.08398106e-02,
       -3.27483155e-02, -7.68740196e-03, -5.03115298e-04,
       -2.68298741e-02, -1.00947982e-02, 3.18467170e-02, 4.97886352e-03,
       -1.41023835e-02, 2.61476487e-02, -1.17764985e-02, -7.14025041e-03,
       3.93384416e-03, -1.04572522e-02, -2.09469511e-03, 1.35299703e-02,
       -5.65715041e-03, -3.08740307e-02, 6.80587161e-03, -4.07050364e-02,
       -1.80741549e-02, 5.20377886e-04, -3.86403166e-02, -2.13228874e-02,
       -2.40920251e-03, -9.52785742e-03, -1.14739360e-03, 3.21609527e-02,
       -2.17644993e-04, -2.40202004e-04, 1.24457479e-02, 1.96902622e-02,
       2.06887890e-02, 4.59504761e-02, -2.61291303e-03, -2.59375814e-02,
       3.28664272e-03, -2.60273740e-02, 7.46121723e-03, 7.96833541e-03,
       4.24388237e-03, 2.08100490e-02, 2.39092149e-02, -2.29073372e-02,
       -1.53108072e-02, -1.37064140e-02, -5.53939342e-02,
       -1.68636325e-03, 5.00378152e-03, -3.35803702e-02, -1.00543862e-02,
       1.38900420e-02, 5.84629271e-03, -1.47304088e-02, -3.85141447e-02,
       -5.32384850e-02, -4.33364930e-03, -3.33475806e-02,
       -5.22345379e-02, -1.95246208e-02, -3.04513029e-03,
       -3.05690104e-03, 1.40566826e-02, 1.26385614e-02, -2.28689965e-02,
       4.93784025e-02, 2.72930060e-02, -2.57840659e-03, 5.08418120e-03,
       4.49540094e-02, -1.36367725e-02, -1.30679617e-02, 3.65715884e-02,
       -1.79142486e-02, -1.41352497e-03, 1.31214340e-03, -1.46031715e-02,
       -1.26894638e-02, 2.30066851e-02, -2.57916432e-02, 4.24953131e-03,
       3.55509156e-03, -3.17514725e-02, 1.29140988e-02, 1.89163759e-02,
       -2.32668128e-02, -1.17977057e-02, 1.97957121e-02, 2.80782357e-02,
       -9.59647819e-03, -2.61917710e-02, -5.17855957e-02,
       -1.31512992e-02, 1.12558752e-02, -3.05245519e-02, -2.20477171e-02,
       2.71828994e-02, 1.08324103e-02, -1.56516694e-02, 1.21124946e-02,
       -2.12777015e-02, 3.23534869e-02, 2.96109635e-02, 2.62910575e-02,
       1.30933234e-02, 3.00928932e-02, -9.82115697e-03, -4.07505035e-02,
       -1.28621645e-02, -2.27110405e-02, 2.88137724e-03, -1.35294525e-02,
       6.26020785e-03, -3.68471071e-02, 6.53149211e-04, -2.14575622e-02,
       -1.95581634e-02, -1.15232691e-02, -2.41865478e-02, 2.39292551e-02,
       1.98159348e-02, 1.01469578e-02, -1.51288919e-02, 1.76664796e-02,
       -1.24182375e-02, -1.99687034e-02, -1.05122365e-02, 9.54875795e-05,
       -5.19197946e-03, -4.08583228e-03, -3.30811460e-03,
       -3.27414796e-02, 1.74035244e-02, -3.19302715e-02, -1.10230139e-02,
       2.88792793e-02, 2.22297478e-02, 5.10727540e-02, 1.84006914e-02,
       4.49423380e-02, -7.46722054e-03, 3.79561856e-02, -5.78995515e-03,
       -8.41642730e-03, 1.77217666e-02, 1.68735087e-02, -7.97108107e-04,
       -9.94792767e-03, 2.27960572e-03, -1.54435309e-02, 1.78517457e-02,
       -9.93869547e-03, -3.48347123e-03, 5.03140781e-03, 2.02834960e-02,
       3.39932041e-03, -7.06200721e-03, -6.99282950e-03, -1.65867601e-02,
       2.69259568e-02, 2.16321945e-02, 6.40042650e-04, -6.18831022e-03,
       -1.58864670e-02, 1.80479400e-02, -1.21886597e-03, 1.11649791e-02,
       -1.37746586e-02, -2.68193823e-03, 1.57688919e-03, -1.89173725e-02,
       4.28621983e-03, 1.81791559e-02, -1.07463198e-02, -2.41384599e-02,
       -1.13275519e-03, -1.48363682e-02, 1.37643972e-02, -8.23139679e-03,
       -2.63457969e-02, 2.23317952e-03, -4.01258422e-03, 1.74067672e-02,
       3.66927031e-03, 3.97183560e-03, -9.06631257e-03, 2.57101445e-03,
       -2.16007382e-02, -1.44751044e-02, -2.71997619e-02,
       -3.63401026e-02, -4.43440164e-04, -1.09758554e-02, 1.44028710e-02,
       -1.66098624e-02, -1.87273007e-02, 1.07197165e-02, -2.07784437e-02,
       -2.01564897e-02, -4.56307754e-02, -1.53914262e-02, 1.40516972e-02,
       6.88031269e-03, -1.03502451e-02, -1.90900397e-02, -1.03499088e-02,
       8.25943053e-03, 5.38633997e-03, -1.67610981e-02, -1.17114279e-02,
       -1.89342555e-02, 2.18570028e-02, 1.59518048e-02, 1.71506908e-02,
       -6.78233942e-03, -1.64991673e-02, 1.03261955e-02, -2.14935560e-02,
       1.51321217e-02, -1.08869402e-02, 2.33888160e-02, 1.36016170e-03,
       1.82066187e-02, -1.47548420e-02, 1.67654846e-02, -6.02654938e-04,
       -3.32524888e-02, 1.09447865e-02, -2.16484349e-03, 7.18080904e-03,
       -1.57492291e-02, 1.66987069e-03, -3.43969732e-04, -1.31157665e-02,
       6.19190745e-03, -2.03003101e-02, 1.05456477e-02, -1.87240262e-02,
       -9.80486535e-03, -4.21662889e-02, 7.29507767e-03, -2.09242869e-02,
       1.33874966e-02, 9.27781034e-03, 1.23397494e-02, 4.18115705e-02,
       -5.33821620e-03, 2.65971534e-02, -2.75652902e-03, 2.00009532e-02,
       1.18822968e-02, 4.81895544e-03, 4.33439302e-04, 1.02714365e-02,
       3.34795602e-02, -1.28437346e-03, 7.41765893e-04, -1.95535421e-02,
       2.49112025e-02, -3.91410477e-03, -3.72556783e-02, 3.55741708e-03,
       -5.65280532e-03, 2.39565894e-02, 9.27952398e-03, 2.13178631e-04,
       -2.22998261e-02, -8.05852190e-03, -2.81144250e-02,
       -1.49192978e-02, -1.27648972e-02, -4.77659367e-02,
       -1.23355119e-02, 1.15345102e-02, -2.99035432e-03, -5.02890423e-02,
       -3.04688513e-02, -1.76312122e-02, 1.75162293e-02, 2.16565467e-02,
       -3.79052083e-03, 2.97101657e-03, 1.72716621e-02, 3.32671814e-02,
       1.60827357e-02, 2.80968808e-02, 1.18498262e-02, -3.89343919e-03,
       5.57565549e-03, -2.57934313e-02, -1.41416946e-02, 1.96448825e-02,
       1.87498834e-02, 8.85694008e-03, -1.21728359e-02, -5.00269420e-03,
       -3.14064212e-02, 3.28671443e-03, -1.43788634e-02, 8.03482719e-03,
       -6.65773347e-04, -8.67433264e-04, -2.30561607e-02,
       -3.41169871e-02, -4.57075424e-03, -2.19116341e-02, 3.72921611e-04,
       -6.61352417e-04, -2.00312566e-02, -9.01497249e-03,
       -2.71523148e-02, 2.29761507e-02, 1.01790112e-02, -1.57962311e-02,
       8.33540503e-03, 1.49682434e-02, -2.04302114e-03, 3.65687832e-02,
       2.72984561e-02, 4.19520773e-02, 2.76528317e-02, 8.20451137e-03,
       -4.06596065e-03, 1.05533572e-02, 2.48612463e-03, -8.59118253e-03,
       -4.46120836e-03, 1.12461001e-02, 2.00585723e-02, 4.41381373e-02,
       1.15889562e-02, -1.09989233e-02, -1.49549916e-02, 3.18677723e-02,
       3.67339440e-02, 1.39857791e-02, -2.40326487e-02, -3.89517806e-02,
       6.54200464e-03, 4.53239195e-02, 7.22948182e-03, -2.96608405e-03,
       -1.19509930e-02, 2.04608194e-04, 1.59524735e-02, -8.16873182e-03,
       1.15495082e-02, -1.41007463e-02, -1.90231297e-02, 7.40790553e-03,
       3.51194036e-03, 2.88038403e-02, 1.39600923e-02, 3.51397973e-03,
       -8.00652429e-03, 3.00450958e-02, 9.43083223e-03, -1.40198658e-03,
       1.24012567e-02, -1.29306540e-02, 5.37741696e-03, 3.06881201e-02,
       2.25245282e-02, 2.75804400e-02, 2.44889874e-02, -9.70741361e-03,
       -2.71995626e-02, 1.18241189e-02, 1.23531753e-02, -3.81642357e-02,
       -3.22381407e-02, 9.55442712e-03, 2.01376583e-02, 3.28974202e-02,
       2.02976959e-03, -3.22879036e-03, 1.70932356e-02, 4.02015224e-02,
       -1.76376142e-02, -3.05943936e-02, 9.48046392e-04, -1.09045831e-02,
       -1.04510002e-02, -1.65278465e-02, -1.32315967e-03, 1.84700061e-02,
       -1.57595659e-03, -2.09297258e-02, 1.30850105e-02, 2.70140637e-02,
       2.77345981e-02, 4.50614169e-02, 6.12961175e-03, -4.85804770e-03,
       5.90558862e-03, 3.43141779e-02, -4.07803468e-02, 1.24618586e-03,
       -4.59273299e-03, -1.68705988e-03, 2.61749364e-02, -1.88763253e-03,
       -6.74795918e-03, 2.24609524e-02, 4.92080487e-02, 6.88335765e-03,
       -1.50847910e-02, 1.55845527e-02, 3.31592895e-02, 9.96364560e-03,
       4.08922834e-03, -1.22576952e-02, 8.26632604e-03, 3.51746343e-02,
       9.25734546e-03, 1.26539674e-02, 1.69784902e-03, 3.30519164e-03,
       9.52086132e-03, -6.06031902e-03, -4.62690089e-03, 1.62486956e-02,
       -7.27613748e-04, -1.52394203e-02, -1.34711564e-02, 5.38763218e-03,
       -3.55221680e-04, -4.95003862e-03, -7.72062270e-03,
       -1.17908185e-02, 1.01688690e-02, 2.15276778e-02, -1.99209750e-02,
       -1.08970013e-02, -4.99634910e-03, -1.63685102e-02,
       -2.33112671e-03, 4.56582615e-03, -3.19982087e-03, 3.76184843e-02,
       9.70033277e-03, -1.15243867e-02, -1.71886981e-02, -1.17475884e-02,
       2.41953190e-02, 4.82117245e-03, -9.94740985e-03, 3.88982543e-03,
       2.74726711e-02, 2.78792698e-02, 1.73954535e-02, -2.41508037e-02,
       -5.02653187e-03, 6.45176740e-03, -7.23328488e-03, -1.56032005e-02,
       9.13095661e-03, 2.85248812e-02, -1.35131064e-03, -7.29860412e-03,
       4.75212699e-03, -1.29910922e-02, 8.26126616e-03, 3.10384738e-03,
       8.06082878e-03, -1.18306316e-02, 3.65976244e-02, -1.16898101e-02,
       -2.21437421e-02, -5.76544600e-03, 3.65298521e-03, 7.65614305e-03,
       -3.56764183e-03, -1.48019998e-03, -9.10933781e-03, 1.28746275e-02,
       -1.54797584e-02, -8.85660946e-03, -5.21407695e-03, 9.97074530e-04,
       2.82314476e-02, -2.46903822e-02, -2.13775150e-02, -2.13360060e-02,
       6.33662380e-03, 6.31381874e-04, -1.05045084e-02, -1.11972997e-02,
       1.13297487e-02, -2.30689556e-03, -4.13886482e-05, 2.87646670e-02,
       1.41429231e-02, 1.94394235e-02, -1.51902549e-02, -1.52929565e-02,
       -1.96412485e-03, 9.26404260e-03, 6.27364889e-02, -2.45271740e-03,
       -2.23618150e-02, -2.08880119e-02, 9.94167291e-03, -1.37665654e-02,
       -2.93232873e-02, -1.56836100e-02, -6.43744785e-03, 1.08203548e-03,
       1.04669966e-02, 2.79225055e-02, 4.62466441e-02, 2.00518523e-03,
       -1.03176134e-02, -1.10087562e-02, -2.37596091e-02,
       -2.29309499e-02, -7.94698671e-03, -1.50414333e-02, 1.11381458e-02,
       1.32556884e-02, -2.12305933e-02, 5.63875539e-03, 3.36233862e-02,
       -3.91899385e-02, -1.17738796e-02, 3.48780043e-02, 1.14265401e-02,
       1.18679423e-02, -9.66154330e-05, -2.71569174e-02, -1.68747101e-02,
       1.01301875e-02, 3.24307978e-02, 6.55174861e-03, -1.29978321e-02,
       -1.27024893e-02, 2.95264553e-02, 1.94954891e-02, -2.69567855e-02,
       -7.35006295e-03, 2.32622027e-02, -1.29122511e-02, 1.11593176e-02,
       2.78154444e-02, 9.77523532e-03, 2.94688921e-02, -2.81872451e-02,
       -4.89316508e-02, 3.61965299e-02, 4.60454486e-02, -6.02640770e-03,
       -4.59190365e-03, 1.53357536e-02, 9.48527083e-03, 1.45171145e-02,
       9.82623734e-03, -1.95342358e-02, 2.94733923e-02, 9.03526600e-03,
       -4.44343351e-02, -9.94065683e-03, 1.93348229e-02, -1.46852601e-02,
       -5.40288677e-03, 1.21783027e-02, -2.12756125e-03, 5.58365695e-02,
       6.78418651e-02, -2.08258815e-03, 1.37206435e-03, 2.23608129e-03,
       1.17779691e-02, 1.57005899e-02, -6.74148882e-03, -3.39354649e-02,
       3.57591845e-02, 7.72350747e-03, -5.51274866e-02, -3.25157307e-03,
       1.77961588e-02, -2.81680208e-02, 2.97929673e-03, 1.14577878e-02,
       -3.12500540e-03, 1.72080658e-02, 6.23068539e-03, -3.20391804e-02,
       1.06150741e-02, 2.84371432e-02, -5.81351621e-03, 1.38607379e-02,
       4.01150174e-02, 3.43090631e-02, -1.06066167e-02, -4.52761399e-03,
       -2.59801783e-02, 2.44792867e-02, 2.76322067e-02, -2.66997479e-02,
       -1.24335559e-02, 3.45295817e-02, -5.07783378e-03, 1.00957658e-02,
       2.59145685e-02, -1.24522122e-02, 1.07475817e-02, 2.21041730e-03,
       -2.57938961e-03, 1.14453435e-02, 3.43928561e-02, -1.85349360e-02,
       -2.10804343e-02, 1.53615857e-02, 5.71002671e-03, 1.34094758e-02,
       1.45645542e-02, -3.15456502e-02, -1.86757091e-02, -1.00730006e-02,
       -4.42082919e-02, -9.27221868e-03, -1.66888942e-03,
       -1.67899448e-02, 7.40246847e-03, 9.51798726e-03, -1.22784274e-02,
       9.01341904e-03, 4.36367020e-02, 6.31563645e-03, -8.23450927e-03,
       -4.48390190e-03, -1.42008215e-02, -2.63791531e-02,
       -1.37830181e-02, -1.26374578e-02, -2.45542396e-02, 2.00665444e-02,
       8.47127987e-04, 1.55258197e-02, 6.69340938e-02, 1.35589745e-02,
       1.21689131e-02, 2.18299162e-02, -1.91964544e-02, 1.13114202e-02,
       2.71599535e-02, -1.37778297e-02, 5.65592712e-03, 3.28399613e-02,
       -8.36155564e-03, -2.44757514e-02, 8.60317703e-03, -2.80904211e-02,
       1.95648026e-04, -3.41786491e-03, -3.89343500e-02, -1.84321702e-02,
       -5.35045052e-03, 1.08457068e-02, -3.52503592e-03, -2.63681579e-02,
       -4.88154683e-03, -2.50387248e-02, 7.05710799e-03, 3.41192670e-02,
       4.17926908e-03, -1.34445000e-02, -1.89879946e-02, -1.37009600e-03,
       -8.29384662e-03, -1.16575696e-02, -2.06581107e-03, 1.36317480e-02,
       2.41570324e-02, 1.42172081e-02, 3.20556909e-02, 1.46601852e-02,
       2.03525741e-02, -2.21079588e-03, 2.19905586e-03, -1.38519434e-02,
       -1.26652541e-02, -7.58061232e-03, -7.79202674e-03, 8.14155955e-03,
       -5.90267498e-03, 2.92739701e-02, 1.13056926e-02, 1.33036776e-02,
       -1.32922232e-02, -2.82076895e-02, 1.44409193e-02, 1.72554201e-03,
       1.11011742e-02, -1.05628930e-02, 1.09976968e-02, -1.50230515e-03,
       1.77173549e-03, -1.25476550e-02, 9.90400091e-03, 1.74620636e-02,
       -5.73778152e-03, 1.90748200e-02, -1.68909822e-02, -3.14749009e-03,
       4.73631499e-03, -2.06141453e-02, -2.44356077e-02, -1.26237487e-02,
       -2.61227414e-02, -1.88921001e-02, 1.40047399e-02, -1.46954814e-02,
       3.80323417e-02, 4.88285311e-02, 5.47573864e-02, 3.96828316e-02,
       2.73774583e-02, 1.39305647e-02, -2.59044785e-02, 4.00870061e-03,
       -1.68439541e-02, 1.82087142e-02, 2.49430314e-02, 2.11286135e-02,
       -7.23022735e-03, 7.24706706e-03, -6.37782691e-03, 7.38432864e-03,
       2.99750769e-04, -1.32437944e-02, -1.85034815e-02, -2.98934728e-02,
       -7.75772100e-03, 1.59216020e-03, 1.53206615e-02, -3.42565053e-03,
       -4.82261786e-03, -3.25708883e-03, -2.56964061e-02,
       -1.17932018e-02, -1.38764801e-02, 1.83243137e-02, -1.29666505e-03,
       1.86256263e-02, -1.29558826e-02, 8.74374248e-03, 2.97098067e-02,
       9.97307245e-03, 2.32358426e-02, 8.24215263e-03, -1.69799605e-03,
       -3.55146267e-02, -6.90563722e-03, -3.04199681e-02,
       -3.18205617e-02, 5.18640270e-03, -1.16004255e-02, 7.82329496e-03,
       1.83050204e-02, 1.16655249e-02, -4.10055481e-02, -3.36373337e-02,
       2.19365279e-03, -2.52729449e-02, -1.38572352e-02, -2.90248971e-02,
       -1.88838989e-02, -2.96839233e-02, 2.06937883e-02, -1.57234818e-02,
       2.44433153e-03, -8.42863054e-04, -9.75980237e-03, -2.27963049e-02,
       -2.08859816e-02, -1.18049029e-02, -3.24168950e-02,
       -1.51533047e-02, -2.63221879e-02, -1.99536025e-03, 5.59885334e-03,
       3.36232153e-03, -1.59950834e-02, -1.00268871e-02, 9.53889918e-03,
       3.26951332e-02, 4.80511002e-02, 4.49259300e-03, 9.88508016e-03,
       3.29011446e-03, 1.02340188e-02, 1.42392167e-03, -2.45046839e-02,
       2.10523251e-02, 3.15949805e-02, 2.22268850e-02, 4.97912464e-04,
       2.64855009e-02, 1.18314214e-02, 2.31093001e-02, 1.98163651e-02,
       -1.04060937e-02, -2.43224278e-02, -3.36187743e-02, 1.32882467e-03,
       5.33567043e-03, 1.06256707e-02, 1.48567231e-02, 5.88120101e-03,
       1.89849623e-02, -1.30830202e-02, -1.91827584e-02, -2.75997259e-02,
       -2.23672017e-02, -8.42425134e-03, -1.22018568e-02,
       -3.33450995e-02, 1.72536876e-02, 1.73285604e-02, -2.50390992e-02,
       6.75112568e-03, 4.55510290e-03, 2.64722966e-02, -1.16431769e-02,
       3.37073021e-03, -1.24877524e-02, 6.89263828e-03, 1.55032193e-02,
       -1.36761088e-02, 2.43875049e-02, 3.78326885e-02, 3.77343781e-02,
       1.19307740e-02, 1.56518966e-02, -2.14682370e-02, 8.73725489e-03,
       -9.96903144e-03, 4.14638454e-03, 6.22207252e-03, -2.43282653e-02,
       -8.45608115e-03, -1.83336399e-02, -3.25319660e-03,
       -7.27987196e-03, -4.33085579e-03, -4.19369638e-02,
       -2.58866847e-02, -1.99618079e-02, -9.86075122e-03,
       -2.58311518e-02, -2.60008667e-02, -1.32979946e-02,
       -1.23833232e-02, 8.68214853e-03, 1.80500019e-02, 1.56646390e-02,
       3.22733559e-02, 6.11717477e-02, 5.72894253e-02, -1.97803993e-02,
       3.02518252e-02, 3.19800153e-03, 2.78551728e-02, 1.98148414e-02,
       2.51264758e-02, -3.05526657e-03, 4.33473438e-02, 2.24457514e-02,
       -2.76724510e-02, 2.90303435e-02, 7.22503522e-03, -3.46201449e-03,
       -1.32507458e-02, -2.27977685e-03, -1.80839039e-02,
       -3.23042134e-03, 7.96393305e-03, 8.13141931e-03, -1.29276281e-02,
       8.13306123e-03, 1.39772613e-02, -1.40366959e-03, 1.92077679e-03,
       -2.40766387e-02, -1.04643693e-02, -2.58268137e-02,
       -2.25101933e-02, -5.94728068e-03, 4.05310281e-02, 1.71392895e-02,
       2.60703862e-02, 3.18603404e-02, 1.60340592e-02, 2.33972929e-02,
       5.63258268e-02, 1.24699092e-02, 2.96580009e-02, 2.60299854e-02,
       -1.98243130e-02, -4.72511239e-02, 4.59896447e-03, -2.09371801e-02,
       1.36003457e-02, 1.92445435e-03, -4.72030230e-02, -1.15888624e-03,
       1.12494668e-02, -5.73839340e-03, -2.22258456e-02, 4.59796842e-03,
       9.27608646e-03, -3.28466785e-03, 1.44234514e-02, 1.35411704e-02,
       2.08569616e-02, 1.44608691e-02, 2.24503060e-03, -4.70947213e-02,
       -1.13160778e-02, 2.81521473e-02, -1.14864961e-03, -2.15031840e-02,
       -1.62979607e-02, 6.54982170e-03, 4.10869345e-03, 1.03682913e-02,
       -1.67239197e-02, 1.24768643e-02, -8.00196826e-03, -1.31525956e-02,
       5.78919612e-03, 1.85286696e-03, 3.35147642e-02, 3.20949592e-02,
       -8.65372550e-03, -4.21723239e-02, -1.45054273e-02, 7.43861077e-04,
       -1.55969737e-02, -7.46554974e-03, -5.51357213e-03,
       -1.40079847e-02, -2.09958944e-02, -4.74388339e-03,
       -1.96289308e-02, 6.55614014e-04, 2.70357039e-02, 3.35116573e-02,
       -7.31388852e-03, 3.43053765e-03, -1.37955253e-03, 7.11510284e-03,
       1.75273940e-02, -2.51012426e-02, 9.35052615e-03, 1.63251720e-02,
       3.08822142e-04, -7.98650552e-03, -5.08543197e-03, 2.78453017e-03,
       3.70862298e-02, 3.90304551e-02, -1.57165248e-02, 5.46400109e-03,
       5.78139024e-03, 1.19063174e-02, -1.68575980e-02, -2.71267816e-02,
       -2.60365456e-02, 2.86471751e-02, -1.47271557e-02, -5.10839038e-02,
       -3.67016569e-02, 1.24826385e-02, -2.30889693e-02, 1.16800191e-02,
       -7.92007521e-03, -3.06963939e-02, 2.41068657e-02, -2.47976333e-02,
       -3.46627198e-02, -4.71593055e-04, -1.96292829e-02,
       -2.43257266e-02, -4.25261892e-02, -1.10219195e-02,
       -2.50197388e-02, -1.20086325e-02, 6.52354117e-03, 2.63522044e-02,
       -8.99329036e-03, -9.49835032e-03, 8.90220795e-03, -1.63375475e-02,
       -1.63027423e-03, -1.30245350e-02, 6.95982808e-03, -1.25489729e-02,
       -1.24995671e-02, 6.75191581e-02, 6.84881285e-02, 2.54761912e-02,
       -1.25940982e-02, -7.92710483e-03, -5.57319149e-02,
       -1.10931778e-02, 3.78806032e-02, 7.80762807e-02, 5.19520715e-02,
       4.56990674e-02, 1.64582692e-02, -3.18175298e-03, 2.95620095e-02,
       -2.77039371e-02, 1.95507822e-03, 1.90691967e-02, -2.54634419e-03,
       -4.09270786e-02, -4.02380303e-02, 1.12966243e-02, -9.16483346e-03,
       1.45180533e-02, 9.13478527e-03, 3.53223272e-02, -2.60356143e-02,
       -1.38793802e-02, 1.71192028e-02, 2.12345626e-02, -1.10043259e-02,
       -2.80355965e-03, 1.82026681e-02, 6.46667406e-02, 1.90196708e-02,
       6.45907819e-02, 4.24340330e-02, -2.92692091e-02, -1.80971250e-03,
       1.06183160e-02, 1.93218724e-03, 1.39314253e-02, 4.65943553e-02,
       6.40049577e-02, 1.80504806e-02, 4.71794466e-03, 4.72710142e-03,
       5.30600883e-02, -4.36485698e-03, 1.10401716e-02, 3.46541628e-02,
       6.70487806e-02, 5.58974631e-02, -1.02825370e-02, 7.00065345e-02,
       1.21921860e-01, 8.21552798e-02, -2.69625243e-02, -4.52043191e-02,
       -1.31082963e-02, 3.13412696e-02, -3.82206067e-02, 2.62353313e-03,
       7.23168477e-02, 4.39422354e-02, 3.28001054e-03, -2.89943703e-02,
       -5.22285365e-02, -4.70364206e-02, -3.20571959e-02,
       -5.55639006e-02, -1.35096805e-02, 6.17602468e-02, 9.38336775e-02,
       7.06906542e-02, -9.05250292e-03, -9.31809377e-03, 9.70336888e-03,
       5.08277826e-02, -1.81212532e-03, 2.24004057e-03, 5.83116431e-03,
       2.66888663e-02, -6.60249684e-03, 4.85872896e-03, -2.58889664e-02,
       -1.06134582e-02, -6.25423342e-03, -3.78802866e-02, 3.16219106e-02,
       8.86258706e-02, 6.34836324e-04, 1.89050790e-02, -1.90158468e-02,
       1.06927305e-02, 2.16682558e-03, 2.89835539e-02, -2.99242530e-02,
       8.02509428e-04, 1.91956647e-02, -3.27402959e-03, 7.08342763e-03,
       2.44553899e-03, -1.55904621e-03, 1.46805681e-02, 3.85258645e-02,
       -1.01825856e-02, -2.30729789e-03, 4.05535428e-03, -1.07916892e-02,
       -1.62479058e-02, -2.08977535e-02, 1.07850917e-02, 2.01862548e-02,
       2.70958226e-02, -1.90912485e-02, -3.22005115e-02, -1.17603792e-02,
       -2.29023099e-02, -2.83759031e-02, -8.82651471e-03,
       -1.55851478e-02, 1.68378849e-03, 1.51985064e-02, 2.98440456e-03,
       2.52035521e-02, 3.38200107e-02, -3.01923486e-03, -1.89687323e-03,
       -2.74794381e-02, 5.00931987e-04, -2.24207272e-03, 2.69011240e-02,
       3.27572525e-02, 3.40365022e-02, 8.05523470e-02, 4.07928489e-02,
       2.24959273e-02, 3.29776527e-03, 4.59535606e-03, 8.39519501e-03,
       3.30442712e-02, -1.11573925e-02, 1.23539530e-02, 1.86452065e-02,
       -2.50918455e-02, -3.37728932e-02, -1.99122708e-02,
       -2.59870477e-02, -9.49096400e-03, 5.18536055e-03, 2.94586131e-03,
       2.09434126e-02, 2.74440311e-02, -6.44970872e-03, -4.23843898e-02,
       -2.27034185e-02, -2.83056591e-02, -1.21945329e-02,
       -8.57053883e-03, -2.45073736e-02, 1.51290521e-02, 7.97157288e-02,
       2.47778129e-02, 5.78124402e-03, -3.16034566e-04, -8.39308661e-04,
       2.02951580e-02, 5.60125783e-02, 1.83195230e-02, 1.98914129e-02,
       3.62241380e-02, -1.62648968e-02, -2.49183048e-02, -7.29929190e-03,
       -2.16199644e-02, 2.28091758e-02, 2.64626145e-02, 3.24070896e-03,
       -6.62916480e-03, 1.41457571e-02, -7.49299303e-03, -1.83851458e-02,
       -8.78920499e-03, 9.26768873e-03, 2.62140704e-04, 3.93157639e-03,
       -2.99329534e-02, 1.83196622e-03, -1.44559834e-02, -3.49400118e-02,
       -4.64913622e-02, -2.43805964e-02, -1.46911554e-02,
       -2.03281976e-02, 4.33205022e-03, 3.49260983e-03, 5.89332245e-02,
       5.23735844e-02, 1.87552404e-02, 1.63205117e-02, 7.91939814e-03,
       1.00516835e-02, 4.65297280e-03, 3.10112629e-02, 3.59749459e-02,
       2.62047816e-02, 1.99410394e-02, 3.04005831e-03, 3.18322727e-03,
       -8.77928082e-03, -2.03476641e-02, -7.97087140e-03, 2.58646104e-02,
       3.55022065e-02, 1.93548575e-02, 2.18747631e-02, -2.20935959e-02,
       3.21236381e-04, -2.24677473e-02, 1.02397585e-02, -1.61828077e-03,
       2.48395279e-02, -2.48032305e-02, -1.46073364e-02, -1.84395909e-02,
       -9.79894120e-03, -3.46933343e-02, -5.67100756e-03,
       -1.69078931e-02, -2.09220760e-02, 2.49909190e-03, -4.46659094e-03,
       2.35203211e-03, 7.84916244e-03, -2.60984115e-02, -3.66325234e-03,
       -8.73131678e-03, 3.85088264e-03, 3.96166136e-03, 5.25795519e-02,
       5.95051497e-02, 2.50785816e-02, 3.86467436e-03, -2.63838638e-02,
       -1.79342031e-02, -1.45190119e-04, 1.21148024e-02, 1.53308222e-02,
       6.41758889e-02, 5.53491078e-02, -2.38480512e-02, 2.24437192e-02,
       -9.50739440e-03, -8.61148071e-03, -2.16906685e-02,
       -1.72858983e-02, -3.21140140e-02, 7.04939058e-03, 3.11427726e-03,
       -1.64064039e-02, 3.47607881e-02, -2.83609778e-02, -1.24029778e-02,
       1.76802035e-02, -1.00775491e-02, -5.56433760e-02, 2.99954768e-02,
       9.50765912e-04, -5.51944412e-03, 2.24041492e-02, 1.72403082e-02,
       -1.21727036e-02, -2.02281214e-02, 1.61071541e-04, -1.19444774e-02,
       9.52925440e-03, 3.36796604e-02, -1.70886610e-02, 1.68271381e-02,
       6.28220895e-03, -2.58916002e-02, 8.04761145e-03, -1.56968143e-02,
       -3.66295725e-02, -9.65825922e-04, 1.05201174e-03, -2.51146615e-03,
       2.16547232e-02, -2.07750071e-02, -1.39610255e-02, -1.43027743e-02,
       -1.18633462e-02, -1.62022170e-02, 3.12497355e-02, -1.60941966e-02,
       2.50322372e-03, 3.09692565e-02, -2.30261590e-03, -4.42958735e-02,
       -1.45658460e-02, -1.48182269e-02, -1.64464097e-02, 1.52794505e-02,
       6.51684077e-03, -3.29075232e-02, 1.72940884e-02, -1.45717058e-02,
       -3.19536179e-02, 1.41904876e-02, 8.44814442e-03, -1.93426665e-02,
       1.20330937e-02, -2.59536617e-02, -1.36668272e-02, 1.94685832e-02,
       -1.74585879e-02, 8.07029661e-03, 1.36939503e-04, -3.51029471e-03,
       -1.19197294e-02, 2.38786768e-02, -1.08281663e-02, -1.52532682e-02,
       6.03490472e-02, -2.71152379e-03, -2.52789222e-02, -4.65749204e-03,
       -8.50287732e-03, 2.20406591e-03, 2.96589872e-03, -1.72934495e-03,
       1.84858590e-02, 4.98807877e-02, -1.10177314e-02, 4.34404286e-03,
       -1.80572458e-03, 6.23634201e-04, -1.46697536e-02, -9.99652781e-03,
       1.29994685e-02, -1.11761447e-02, 1.21926342e-03, -1.46382386e-02,
       6.32778369e-03, -1.45528382e-02, -1.33886859e-02, -3.02058589e-02,
       8.33302923e-03, 7.30798638e-04, -1.45522412e-02, 5.75084100e-03,
       -4.35278043e-02, -1.28297042e-02, -1.08314650e-02,
       -3.54576483e-02, -2.44237017e-02, -3.47490096e-03,
       -2.86327079e-02, -1.00929122e-02, 9.57542472e-03, -4.37953398e-02,
       -1.73723567e-02, -2.43580937e-02, -2.47394741e-02,
       -3.03081535e-02, 2.30784770e-02, -1.33965397e-02, 9.31311678e-03,
       5.83980829e-02, -1.87449548e-02, -4.56136419e-03, -2.13473220e-04,
       -2.21181419e-02, -2.10402686e-05, 4.71732058e-02, 4.01954874e-02,
       -1.55544737e-02, 1.76653229e-02, -7.62930606e-03, -1.68226883e-02,
       -3.53828706e-02, -2.01371741e-02, -2.46118717e-02, 2.67039216e-03,
       -1.12486249e-02, -2.06795614e-02, -2.54343506e-02,
       -3.56168224e-04, -3.42419520e-02, -1.83297377e-02,
       -5.34428693e-02, -3.86424288e-02, -2.15462372e-02,
       -1.15861101e-02, 2.69399956e-02, 6.46633282e-02, 4.38593850e-02,
       4.65915985e-02, 6.99627399e-03, -2.13142149e-02, -4.63582203e-03,
       2.51563434e-02, 4.30908911e-02, 2.10246537e-03, 1.64650455e-02,
       5.82348928e-02, 2.95041502e-02, 2.69349944e-02, 1.65695045e-02,
       -5.46428747e-03, 2.36987881e-03, 9.16253962e-03, -2.92596733e-03,
       -1.77597310e-02, 4.43025085e-04, 3.39760724e-03, 6.39582146e-03,
       4.02163975e-02, -3.19620478e-04, 2.08322648e-02, 4.69658040e-02,
       -4.15860340e-02, -6.24401979e-02, -3.36391591e-02,
       -6.24395423e-02, -1.79676823e-02, -2.64337230e-02,
       -5.43428808e-02, -2.01897118e-02, -1.03938133e-02, 4.59765680e-02,
       5.04387468e-02, 4.75411154e-02, 4.62628081e-02, 8.30098614e-02,
       9.50087309e-02, 5.55921271e-02, 4.81826439e-02, 4.81567457e-02,
       -1.45909106e-02, -4.23676372e-02, -4.22207043e-02,
       -4.82266918e-02, 2.80908756e-02, 1.75892077e-02, -2.11742781e-02,
       -2.52527446e-02, -1.73400603e-02, 5.28411823e-04, -6.74167788e-03,
       1.43172238e-02, 1.95050649e-02, -4.01274115e-02, 1.09384172e-02,
       4.06815577e-03, 1.81256346e-02, 1.60936154e-02, -3.05431280e-02,
       -3.66152599e-02, -3.89097072e-03, 8.98313615e-03, -1.96292624e-02,
       9.70562454e-03, 1.59159061e-02, -2.49497630e-02, -2.50157230e-02,
       1.66895185e-02, -1.05600536e-03, 2.32128855e-02, 2.32401323e-02,
       -8.71972926e-03, 3.62461321e-02, 2.68099289e-02, 5.83824376e-03,
       2.17611641e-02, 2.32563727e-02, -2.57105045e-02, -3.26608494e-03,
       2.94456761e-02, -1.36974140e-03, 2.75426079e-02, 2.49484796e-02,
       -1.31818829e-02, 1.37236873e-02, 3.79938707e-02, -4.30536978e-02,
       -4.42132652e-02, -4.44931276e-02, 1.10465512e-02, -1.46620199e-02,
       -3.18855532e-02, -5.71974739e-03, 4.79102209e-02, 8.40603840e-03,
       -4.05236334e-02, -4.15497981e-02, -1.87560413e-02,
       -2.56738602e-03, 1.19724190e-02, -5.19525539e-03, -1.63278803e-02,
       4.31520641e-02, 3.25996913e-02, 4.32115886e-03, -3.49565484e-02,
       -2.83525093e-03, -4.25997190e-03, -4.49607987e-03,
       -3.81810926e-02, -4.03183326e-02, 5.28903194e-02, 3.26436423e-02,
       1.85438525e-03, -5.56055165e-04, 1.86226871e-02, 1.55334547e-02,
       3.16031352e-02, -1.05544617e-02, -1.88857093e-02, 4.10650074e-02,
       -3.72898467e-02, -1.34629086e-02, 5.28521612e-02, 3.67950648e-02,
       1.06565123e-02, 2.94246711e-02, 2.69221440e-02, -3.21066938e-02,
       -1.93276200e-02, -1.77856013e-02, 5.99190630e-02, 6.72344938e-02,
       4.41338271e-02, 4.86100977e-03, 3.80788855e-02, 6.15763254e-02,
       -6.80864416e-03, -6.99417517e-02, -2.14544944e-02,
       -1.24519337e-02, 2.74982005e-02, 4.14462127e-02, 2.41295956e-02,
       7.71596804e-02, 7.90397450e-02, -1.50639461e-02, -2.38453094e-02,
       -2.52086166e-02, -3.94388940e-03, 2.24876758e-02, 1.55514162e-02,
       1.19732413e-02, 4.73278649e-02, 9.64481682e-02, 6.10385798e-02,
       -2.90086996e-02, 5.79648539e-02, 3.39872427e-02, -1.86204351e-02,
       -4.21663834e-04, -1.91870406e-02, 2.57015992e-02, 2.23130658e-02,
       2.60694306e-02, 1.22083873e-02, 3.06733139e-02, 1.66242328e-02,
       -3.08391114e-04, 1.75192896e-02, 5.52949216e-03, 1.36681763e-03,
       1.48879094e-02, 3.46651487e-02, 1.26131224e-02, 5.59935048e-02,
       5.31552322e-02, 3.46886110e-03, -8.87451507e-03, 2.36181077e-03,
       1.25345010e-02, 1.97633635e-02, 3.95987891e-02, 3.14850658e-02,
       3.36321294e-02, 4.48243208e-02, 3.45605984e-02, -6.25865418e-04,
       1.13697872e-02, 8.24638456e-03, 2.96800397e-02, 1.32499996e-03,
       1.78970918e-02, -1.64526273e-02, 4.09938097e-02, 5.36168106e-02,
       3.75626534e-02, 2.43347045e-02, 1.55504495e-02, 4.94107604e-02,
       5.96971884e-02, 4.52569034e-03, -3.99587974e-02, -6.14540605e-03,
       -1.25101889e-02, -2.05012783e-02, 3.12089920e-02, -8.97953694e-04,
       2.22320464e-02, -6.25334447e-03, -2.53874958e-02, 1.69802215e-02,
       6.44659400e-02, 7.55692124e-02, 2.70106513e-02, 4.03449917e-03,
       2.24894267e-02, 6.36434779e-02, 3.25461924e-02, -1.33324517e-02,
       -1.65908318e-02, 8.07924103e-03, 3.52454074e-02, -3.53866653e-03,
       2.15221792e-02, -4.76593040e-02, -9.27417167e-03, -4.59220596e-02,
       -5.83434552e-02, -4.21821699e-02, 8.02038610e-03, 4.94033424e-03,
       1.72526634e-04, -2.87629161e-02, 2.19347291e-02, 4.58717793e-02,
       4.27931882e-02, -2.22928021e-02, -2.63337027e-02, -1.89301092e-02,
       -3.16413119e-02, -4.37946506e-02, -2.94323768e-02,
       -1.55842640e-02, 8.66741966e-03, 1.24041364e-02, -1.28710922e-02,
       -3.07125244e-02, 1.78501215e-02, 2.57524289e-02, 9.22263786e-03,
       -2.76419837e-02, -2.75596017e-06, -9.61227249e-03, 4.47850674e-03,
       -3.61547209e-02, -2.22029909e-02, -1.94238648e-02,
       -2.29736567e-02, -3.74650247e-02, -3.57087404e-02,
       -3.09062917e-02, -2.36225706e-02, -1.89780146e-02,
       -2.80830245e-02, 1.21914539e-02, 2.39933515e-03, -1.13830008e-02,
       -1.46401506e-02, -1.08572897e-02, -1.02427946e-02, 9.87246021e-05,
       2.36972161e-02, 1.49363428e-02, -2.21370682e-02, 1.64943449e-02,
       -2.81670273e-05, -3.86632308e-02, -4.20254953e-02,
       -1.39527814e-02, -9.93885472e-03, 2.25222241e-02, -3.20531428e-02,
       8.79212748e-03, -1.16370609e-02, -2.00997889e-02, -1.33720664e-02,
       4.57844278e-03, -1.73212829e-04, 1.12268534e-02, -6.87317085e-03,
       -3.34477797e-02, -3.42922807e-02, 4.00622562e-03, -1.27702272e-02,
       -5.04485294e-02, -3.21839564e-02, -3.27042378e-02, 5.18463133e-03,
       -9.64346714e-03, -3.13619748e-02, -1.65240467e-02, 1.86821427e-02,
       -2.63220374e-03, 8.23638123e-03, 1.19053451e-02, 2.64756586e-02,
       8.17783352e-04, 3.28885275e-03, -2.70678569e-02, -3.92330578e-03,
       -3.17472108e-02, -1.28480736e-02, 7.05702463e-03, 3.24596139e-03,
       2.83278450e-02, 1.82786416e-02, 7.27490429e-03, 6.73585630e-04,
       -3.15516330e-02, -6.62735896e-03, 3.37366969e-03, 1.01896534e-02,
       -1.72704482e-03, -5.02430554e-03, 1.07832495e-02, 7.29859993e-03,
       -2.89585479e-02, 7.41000520e-03, -1.18006747e-02, 4.25744522e-03,
       3.17742638e-02, 8.05395097e-03, -2.10263934e-02, -6.77869981e-03,
       -1.22117922e-02, -1.92901189e-03, -5.24756452e-03,
       -1.74272247e-02, -3.95538897e-04, 3.48531455e-02, 3.40789929e-03,
       3.84516641e-02, 1.90966707e-02, 2.00508628e-02, 1.88949081e-04,
       -2.52785324e-03, -2.27133874e-02, 2.17335857e-03, 2.10665502e-02,
       1.35461809e-02, 8.52663815e-03, -6.36764197e-03, -2.39818488e-04,
       -2.80585028e-02, -2.80215796e-02, 1.65725332e-02, 1.23932008e-02,
       3.25967148e-02, 1.19388131e-02, 7.99495820e-03, 1.21513102e-02,
       6.72524213e-04, -2.62416806e-02, -4.67547178e-02, 7.13709800e-04,
       7.02983420e-03, -7.39220856e-03, 3.49223055e-02, -5.98488282e-03,
       8.41585547e-03, -1.57630164e-02, -2.58903634e-02, -2.88216006e-02,
       3.50508131e-02, 1.68977473e-02, 1.85411591e-02, -2.32268753e-03,
       1.45520375e-03, -3.98450606e-02, -6.54775044e-03, -7.42599787e-03,
       8.48755054e-03, 6.68008327e-02, -2.12507360e-02, 2.21553948e-02,
       1.48048028e-02, -3.69082540e-02, -4.53541726e-02, 2.98714153e-02,
       1.35903750e-02, -5.94602246e-03, 3.72260585e-02, -1.60688460e-02,
       1.04842987e-02, 1.49136856e-02, 6.01506035e-04, 1.07860202e-02,
       2.01288331e-02, -2.21101772e-02, -4.55633504e-03, 2.95817982e-02,
       -4.15291786e-02, -3.13437693e-02, 8.95970152e-04, -7.75961531e-03,
       -7.25821475e-04, 2.97165886e-02, 2.10452825e-02, 5.18186809e-03,
       4.32286710e-02, -2.60767676e-02, 1.98628604e-02, 2.68589258e-02,
       -7.17382878e-03, -1.51167009e-02, 2.53698304e-02, 1.11724623e-02,
       7.23447511e-03, 6.45652860e-02, 1.09950211e-02, -2.88638379e-02,
       2.16970011e-03, -7.16259144e-03, 2.53598895e-02, 4.32337224e-02,
       3.52033563e-02, -6.72911108e-03, 1.43292444e-02, -3.50364223e-02,
       -9.91127104e-04, 3.75901312e-02, -8.84972978e-03, -1.89269392e-03,
       3.85169499e-02, 2.46292492e-03, 2.04363558e-02, 4.64275144e-02,
       -1.25660822e-02, -2.51012314e-02, -1.01520056e-02,
       -6.33332506e-02, 2.24567764e-02, 6.74131885e-02, 1.25274546e-02,
       1.43258905e-04, 6.42960668e-02, 1.86688907e-03, -2.24180613e-02,
       4.81880782e-03, -1.32576805e-02, 1.27895223e-03, 2.30196975e-02,
       9.45315510e-03, 5.45476563e-04, 2.15726774e-02, -1.85350645e-02,
       -2.18167175e-02, -3.71121615e-02, -2.61114538e-02,
       -2.50064842e-02, 4.86509176e-03, 6.95875846e-03, 3.35387350e-03,
       3.20967399e-02, -2.54459847e-02, -2.76784394e-02, 1.20420242e-03,
       -4.27514240e-02, -5.48865087e-03, 5.55562712e-02, 2.53102905e-03,
       -2.42261495e-02, -2.32564490e-02, -3.27696614e-02,
       -2.31578406e-02, -1.53473607e-04, -3.41729857e-02,
       -4.20050658e-02, 2.32169479e-02, -2.01585892e-04, -6.24636095e-03,
       1.06796883e-02, -2.67988779e-02, -1.71899553e-02, -5.77371893e-03,
       -1.98158398e-02, -3.26939709e-02, -3.51659977e-03,
       -9.38517042e-03, -2.39813747e-03, 1.58204101e-02, -1.77253429e-02,
       -1.45855220e-02, -2.98341662e-02, -2.04311237e-02,
       -9.12141707e-03, 2.86928546e-02, 1.45746125e-02, -1.29592809e-04,
       -2.19803136e-02, -5.55201545e-02, -4.30649100e-03, 1.03067216e-02,
       -3.23383473e-02, -2.98743695e-02, 1.59602612e-02, -3.01171485e-02,
       2.56782565e-02, 1.00006564e-02, -1.75506696e-02, -2.00528000e-02,
       -1.04464144e-02, -2.58097034e-02, -3.63761373e-02, 2.48421188e-02,
       -1.46807199e-02, -1.39729967e-02, 1.43177137e-02, 1.48708476e-02,
       4.27826792e-02, -1.29799917e-03, 2.70179473e-03, -4.90554958e-04,
       7.85031822e-03, 2.44987737e-02, 9.05274507e-03, 1.76265202e-02,
       8.71853437e-03, 1.27297025e-02, 5.62937045e-03, 1.62226371e-02,
       8.18506069e-03, 6.50680950e-03, 1.58645622e-02, 1.03015434e-02,
       9.39667691e-03, -3.59139685e-03, 2.51308344e-02, -8.88257660e-03,
       1.79504976e-02, 2.82465154e-03, 3.71430814e-02, -2.06361134e-02,
       1.56629570e-02, 1.87775884e-02, 4.83015412e-03, -1.63605157e-03,
       -3.06239934e-04, -8.72443989e-03, -9.01067164e-03, 1.90672651e-02,
       1.61186289e-02, 3.78493778e-02, 4.19037528e-02, 2.06637941e-03,
       3.53733711e-02, 7.29076415e-02, 8.43013003e-02, 1.66036356e-02,
       2.35582162e-02, 3.43578607e-02, -6.19150233e-03, -3.01108472e-02,
       -4.25472036e-02, -4.65822406e-02, 2.76285876e-02, -4.05826140e-03,
       -2.48179697e-02, -3.40192802e-02, -1.66458581e-02, 3.06622963e-02,
       2.70442739e-02, -7.86801334e-03, 6.07518442e-02, 7.69810453e-02,
       4.78485599e-02, -1.08120227e-02, 3.54787745e-02, 3.20691764e-02,
       -3.48392092e-02, -3.74065712e-02, -2.74458248e-02,
       -2.31976211e-02, 2.49786042e-02, -2.64618266e-02, -5.37266321e-02,
       -4.77664694e-02, -2.13865340e-02, 2.87691616e-02, -7.70495133e-03,
       4.68430156e-03, 2.43716221e-02, -8.54100473e-03, 2.56394185e-02,
       1.20899305e-02, -1.03237806e-02, 2.25982163e-02, 2.93658618e-02,
       -1.03399635e-03, -2.06843037e-02, -1.06249927e-02,
       -1.45575944e-02, 1.74065568e-02, -1.21138236e-02, -1.46869738e-02,
       1.99497305e-02, -3.81484372e-03, 1.40509300e-03, 2.25398559e-02,
       2.77491305e-02, -9.15843807e-03, 2.56501101e-02, -1.38699282e-02,
       -2.41767094e-02, 1.15041146e-02, 1.32189915e-02, -1.54632684e-02,
       -2.74770111e-02, 4.75171395e-03, -1.40673332e-02, -8.65885057e-03,
       -2.15057265e-02, -3.01417317e-02, 1.81687195e-02, 2.26006582e-02,
       -6.50393078e-03, -2.63553043e-03, 2.38268375e-02, -1.58751830e-02,
       -5.62870875e-04, -2.29510870e-02, -4.18522991e-02, 4.80415951e-03,
       1.92538127e-02, -1.28888190e-02, -9.41440463e-03, 4.02267911e-02,
       -4.37211432e-03, 1.62680726e-02, -2.87335981e-02, -3.79111432e-02,
       -3.52306501e-03, 1.70219727e-02, -7.43477931e-03, -8.96438491e-03,
       1.49071682e-02, -1.74843762e-02, 1.61025412e-02, -5.29551832e-03,
       -6.02368382e-04, -1.61802992e-02, 2.81338226e-02, -5.42806985e-04,
       -7.01624434e-03, 6.67920569e-03, -4.16036113e-04, -2.25785212e-03,
       5.55108627e-03, 1.58281848e-02, 4.06457018e-03, 6.71314215e-03,
       -4.04418893e-02, -1.57751758e-02, 8.32104590e-04, 4.84732389e-02,
       8.09216052e-02, 6.23003803e-02, 1.14933902e-03, -1.26942303e-02,
       -1.88894419e-03, -2.35418770e-02, 2.10883524e-02, -7.17535662e-03,
       3.06211561e-02, 3.64459939e-02, 7.23396167e-02, 8.43562931e-02,
       2.11413074e-02, 2.57777330e-03, -2.91076601e-02, -2.76780948e-02,
       -2.14963295e-02, 2.53609717e-02, -2.51430236e-02, 1.38145387e-02,
       -1.76118780e-02, -1.41166104e-02, 1.53905666e-02, -1.06804334e-02,
       -1.71122737e-02, -1.71247276e-03, 3.81066240e-02, 1.03292847e-02,
       2.74036154e-02, 2.28943713e-02, 8.89522303e-03, 5.52531369e-02,
       3.96091454e-02, 7.68010784e-03, -1.06834490e-02, 1.90958921e-02,
       -1.80246755e-02, -1.84380319e-02, 3.51763479e-02, 3.23851369e-02,
       5.61242066e-02, 4.72308807e-02, 5.51612722e-03, -8.55672173e-03,
       -6.81744283e-03, 2.45752353e-02, 1.78343449e-02, -1.21507384e-02,
       1.68809034e-02, 5.39920256e-02, 2.00336706e-02, -1.31513914e-02,
       1.56209536e-03, 2.67878976e-02, -1.23373996e-02, -1.89863127e-02,
       -7.36735156e-03, 2.83805337e-02, 1.29415244e-02, 2.08237041e-02,
       -1.60665549e-02, 1.48718404e-02, 1.11028859e-02, 1.96421817e-02,
       -1.67248808e-02, -4.59216051e-02, -1.66296791e-02, 1.00563783e-02,
       4.02552485e-02, -2.96566141e-04, -1.22215180e-03, -1.77202299e-02,
       6.70076460e-02, 9.41478536e-02, 4.57614474e-02, -2.77053844e-02,
       -3.41906101e-02, -7.36948056e-03, -9.16596036e-03,
       -3.47796530e-02, -1.47036389e-02, -1.21997595e-02, 6.20709732e-03,
       -2.04454400e-02, -2.89158840e-02, -1.70103554e-02, 2.94220657e-03,
       -1.25331394e-02, 6.83248183e-03, 3.25940438e-02, 1.07345529e-01,
       1.12012349e-01, 8.10145885e-02, -1.01234484e-02, -5.47416545e-02,
       -1.59975346e-02, -3.92209664e-02, -4.50146124e-02, 1.66541226e-02,
       1.51295792e-02, 2.56263949e-02, 3.65108736e-02, -5.54902898e-03,
       -1.00469962e-02, 1.25079211e-02, 2.91799079e-03, 5.52940834e-03,
       -1.74430329e-02, -1.49348797e-02, -2.11807676e-02, 1.01346709e-02,
       1.07756639e-02, 3.04240230e-02, 1.57999508e-02, -2.77674431e-03,
       -1.67737696e-02, -2.02692393e-02, -1.35104191e-02,
       -2.50889957e-02, -2.41110399e-02, -2.87335888e-02,
       -2.24983972e-03, 1.18963635e-02, 3.52956704e-03, -1.54079706e-03,
       2.29027239e-03, 2.13766564e-02, 1.19978152e-02, 7.11785555e-02,
       2.79399157e-02, 8.46335571e-03, 1.36040794e-02, 2.96097323e-02,
       -1.14649385e-02, 7.11953826e-03, -6.93084020e-03, -2.16216594e-02,
       3.44574414e-02, 1.29654557e-02, 1.42870815e-02, 1.13956025e-02,
       -1.42416228e-02, -1.57886762e-02, -6.52894285e-03, 1.15103731e-02,
       -6.71711890e-03, -6.43322244e-04, -2.50600767e-03,
       -1.29529051e-02, 4.41380451e-03, -7.26022478e-03, -3.37278768e-02,
       -1.12808403e-02, -2.21674647e-02, -8.49519856e-03, 3.17873037e-03,
       2.34312471e-02, 2.18525846e-02, 2.41637621e-02, 5.47803566e-03,
       -9.07218177e-03, 1.36248209e-02, 1.38475476e-02, 2.10361276e-03,
       4.38326858e-02, 4.16369596e-03, -1.01397792e-02, 1.60389040e-02,
       1.01981657e-02, 9.99735203e-03, 1.77685115e-02, -5.08877775e-03,
       8.17453116e-03, 6.49220198e-02, 2.82086967e-03, -1.61239170e-02,
       1.08169066e-02, 1.12598930e-02, 1.08369421e-02, -3.73424478e-02,
       -1.28296195e-02, 6.00102218e-03, 8.18962790e-03, 9.62702744e-03,
       -5.15058869e-03, 1.45166414e-03, -7.16574257e-03, 2.78767440e-02,
       -1.12899682e-02, -2.10474245e-02, -2.57005747e-02, 9.05016810e-03,
       -1.16325160e-02, 2.32926067e-02, -4.90435224e-04, 1.77953728e-02,
       1.63305495e-02, -2.30501220e-02, -1.28425788e-02, 1.04935486e-02,
       8.68708044e-02, -4.42618830e-03, 1.34691633e-02, 9.36597027e-03,
       2.32727211e-02, 5.31782722e-03, 2.08432041e-02, -2.47162674e-02,
       5.24669013e-04, 4.95103262e-02, 2.30378732e-02, -5.43084517e-02,
       1.04043745e-02, -1.93682183e-02, 5.96605800e-03, -4.55379635e-02,
       -1.24277668e-02, -2.66758464e-02, 2.51041036e-02, 2.39016768e-03,
       -4.19346914e-02, -2.80137314e-03, -3.44257727e-02,
       -1.68511426e-04, -1.77200846e-02, -4.15149555e-02,
       -5.72739681e-03, -2.66372263e-02, -5.37193790e-02, 3.48129863e-04,
       2.34924210e-03, 6.21712906e-03, 1.25058205e-05, -1.35968355e-02,
       -6.90558273e-03, 1.40795941e-02, 5.12104034e-02, 5.00998907e-02,
       4.69113030e-02, 4.60105725e-02, 3.48719629e-03, 1.81026235e-02,
       -5.53662656e-04, -2.02311352e-02, 3.95420147e-03, 1.73316747e-02,
       6.43696785e-02, 3.53536196e-02, 2.33254880e-02, -1.70379281e-02,
       1.69269759e-02, -1.54966014e-02, -1.84016377e-02, -1.22125773e-02,
       -1.16738933e-03, -4.08199243e-02, -3.26945377e-03, 1.08616324e-02,
       -5.43303415e-02, -1.17057394e-02, -3.29431780e-02,
       -4.39692987e-03, -1.58924200e-02, 7.38082512e-04, -2.45034322e-02,
       6.52557835e-02, 5.34085035e-02, -2.01814482e-03, 4.40704934e-02,
       -4.90349019e-03, -1.49283689e-02, -2.45082546e-02, 7.39061553e-03,
       2.25086436e-02, 3.39455940e-02, 2.44242121e-02, -1.57407299e-02,
       1.27989156e-02, -2.35475670e-03, -4.53309622e-03, -3.02924197e-02,
       2.91379984e-03, 1.38839921e-02, -1.00528859e-02, 3.15975733e-02,
       -5.02382331e-02, -2.18520258e-02, -2.74792984e-02,
       -1.39286425e-02, 5.47707779e-04, 1.26024140e-02, -1.07446844e-02,
       2.63782851e-02, 1.11207012e-02, -4.20353934e-02, -1.47514893e-02,
       -3.07239834e-02, -5.34921698e-02, -1.34550529e-02, 3.54510807e-02,
       -2.71735503e-03, 1.88688524e-02, 2.04291418e-02, -3.55679393e-02,
       -1.25244381e-02, -1.11415694e-02, -1.69378892e-02,
       -3.21572199e-02, 1.88477580e-02, -1.02556627e-02, 2.57680118e-02,
       -2.24597170e-03, -3.81946377e-02, -1.99837536e-02,
       -1.20520638e-02, -4.94697355e-02, -3.35524976e-02, 1.57542678e-03,
       2.96922401e-02, -1.12081273e-02, -8.04352295e-03, -1.97264254e-02,
       -8.18063039e-04, -1.07811186e-02, -2.21730880e-02,
       -1.07821375e-02, 4.57939059e-02, -1.17803877e-03, 1.49010373e-02,
       -1.07142469e-02, -2.37393286e-02, 8.22091009e-03, 2.28384091e-03,
       3.04697244e-03, -2.00255197e-02, 1.63835790e-02, 1.27549795e-02,
       -2.78486242e-03, -5.40176872e-03, -6.00184221e-03, 1.68324076e-02,
       8.24613217e-03, -2.05200538e-02, -2.38333158e-02, 9.97008756e-03,
       -1.36390319e-02, 1.17500881e-02, -1.02402754e-02, -2.87414379e-02,
       6.52332907e-04, -1.26809087e-02, 1.48013830e-02, -2.52283905e-02,
       8.27455521e-03, -1.06799901e-02, 3.18926238e-02, 3.59506756e-02,
       -4.35384400e-02, 3.91544262e-03, -8.04549491e-04, -1.76022667e-02,
       -2.49763411e-02, 1.95479067e-03, -3.15460307e-03, 5.51590957e-02,
       5.15267365e-02, -2.25937981e-02, -1.08892461e-02, -4.05289931e-03,
       -2.43166443e-02, -3.82720493e-02, 2.45067216e-02, -5.75253461e-03,
       4.33410192e-03, -2.52612624e-02, -6.36616796e-02, -1.46685392e-02,
       -3.13123874e-02, -2.02681385e-02, -6.76789146e-04,
       -4.59400890e-03, -5.00696003e-02, 3.99500597e-03, -2.51315925e-02,
       -3.76252495e-02, -2.52184756e-02, -2.44175158e-02,
       -6.00670725e-02, -2.82209609e-02, 8.96091200e-03, 5.29482844e-04,
       2.53499765e-02, 5.12707345e-02, 3.91099341e-02, 2.73371730e-02,
       -7.96215888e-03, 3.31722833e-02, 5.34351654e-02, 7.57580474e-02,
       5.62191606e-02, 1.00452267e-02, 2.90872194e-02, 1.56071922e-02,
       3.82408476e-03, -6.55950373e-03, 1.55900130e-02, 6.02509975e-02,
       5.83235659e-02, 5.45316786e-02, 3.22305374e-02, 2.07591038e-02,
       -1.96451903e-03, 7.69034168e-03, -3.37111615e-02, -1.38898063e-02,
       1.42917493e-02, 5.06061763e-02, 2.41693053e-02, -2.49169860e-02,
       -9.80914012e-03, -2.88199466e-02, -3.56160477e-02,
       -2.20352393e-02, -5.52092195e-02, -1.39662204e-02, 6.07615896e-03,
       -9.82336421e-03, 4.19260561e-02, 4.26895693e-02, 3.05220690e-02,
       9.21010971e-02, 7.49092549e-02, 3.97413000e-02, 3.84300575e-02,
       5.84499985e-02, 6.48810938e-02, -8.58737808e-03, -4.21968699e-02,
       -4.89829015e-03, 2.17675008e-02, 2.28518937e-02, -2.85144597e-02,
       -2.18585450e-02, -2.64986027e-02, 4.79304930e-03, 2.69410368e-02,
       3.22751850e-02, 3.69720943e-02, 4.12415713e-02, 4.23528142e-02,
       2.32768990e-02, -3.88700631e-03, 5.12729073e-03, 2.15534419e-02,
       -1.62238646e-02, -2.07612272e-02, -3.51595366e-03, 2.31688796e-03,
       4.36002761e-03, -4.61399145e-02, -3.09050288e-02, -5.25177717e-02,
       -9.79153998e-03, 1.17196208e-02, -9.66486055e-03, 2.25214399e-02,
       8.79886840e-03, -3.06074526e-02, 7.99686741e-03, 8.09638295e-03,
       4.22789715e-03, 1.73332244e-02, -1.64656842e-03, -2.74907332e-02,
       -1.39740966e-02, 2.29058340e-02, -3.88214327e-02, 6.72197388e-03,
       -2.54077371e-02, -4.11624126e-02, 5.05092228e-03, 3.68873402e-02,
       3.10266926e-03, 1.80006288e-02, 1.20422896e-02, 1.26158427e-02,
       3.56482640e-02, 2.64724828e-02, 2.16532443e-02, 2.76998132e-02,
       1.00794155e-02, -2.68747173e-02, 4.46511805e-03, 6.43207058e-02,
       -1.76014507e-03, 2.93041691e-02, -2.50266716e-02, -4.50767130e-02,
       2.84135365e-03, 1.68264732e-02, 3.34970746e-03, 2.45392811e-03,
       4.92112152e-03, 4.22578678e-03, 2.04502847e-02, 7.95755652e-04,
       2.90668150e-03, 1.26375189e-05, 3.65697108e-02, 1.31842243e-02,
       2.43396480e-02, -6.12291042e-03, -9.73251555e-03, -2.73997746e-02,
       -8.22418928e-03, 9.45442449e-03, 9.81616043e-03, -2.31778473e-02,
       1.78091007e-03, -7.82372337e-03, 2.53689978e-02, 2.99658291e-02,
       3.49117108e-02, -6.93942327e-03, -4.93552350e-03, 7.90149905e-03,
       -8.41937959e-03, -8.00634176e-03, -4.96487180e-03, 2.58401837e-02,
       3.80692887e-03, 2.13708654e-02, 4.13431320e-03, -5.12763206e-03,
       8.18779878e-03, 1.73892193e-02, -1.66637860e-02, 2.29261443e-03,
       1.01715904e-02, -2.60979705e-03, -3.12698670e-02, 1.02169076e-02,
       -1.54473551e-03, 1.10269422e-02, 4.06611934e-02, -1.59751866e-02,
       -1.02018816e-02, 6.43422781e-03, -1.87012441e-02, -5.27651142e-03,
       8.41809320e-04, 1.11913111e-03, -2.70487554e-03, -4.53862175e-03,
       -1.12986867e-03, -1.28669888e-02, 8.23728275e-03, -5.32845920e-03,
       -9.28139500e-03, -1.26068192e-02, -2.62182653e-02, 7.23176729e-03,
       2.75794547e-02, 9.79371928e-03, -1.02658933e-02, 5.02081076e-03,
       -1.79183129e-02, -1.17188087e-03, -1.80679858e-02,
       -1.45630399e-02, 2.67678592e-02, 3.09213568e-02, -2.89087649e-03,
       -3.75099592e-02, 7.30709452e-03, 4.18913886e-02, 8.91507044e-03,
       -2.18080748e-02, -6.78869523e-03, 2.84216623e-03, -2.96736107e-04,
       2.10432597e-02, -4.88000503e-03, -2.04274445e-04, -6.33402588e-03,
       3.50925094e-03, -1.08360080e-02, -1.57421492e-02, -2.80552208e-02,
       8.05164780e-03, -1.33318389e-02, -3.39555256e-02, -1.72643212e-03,
       2.41570696e-02, 3.77556272e-02, -1.13998931e-02, -1.58590055e-03,
       -8.10714159e-03, 2.81787887e-02, 1.22121973e-02, -1.36764329e-02,
       -4.36066724e-02, -1.55062806e-02, 1.10356370e-02, 7.21860072e-03,
       1.68481078e-02, 1.15231965e-02, 6.42198790e-03, 1.87060181e-02,
       1.23346476e-02, -7.65887508e-03, -1.39301242e-02, 1.34962918e-02,
       2.20798496e-02, 1.50114419e-02, -2.11146902e-02, -1.81116834e-02,
       9.13607143e-03, 7.35135842e-03, -1.14676105e-02, 8.47788621e-03,
       -1.16519006e-02, -1.74799170e-02, -6.81741023e-03, 1.64968316e-02,
       1.66236761e-03, 2.76342593e-03, -8.51150416e-03, -3.02286539e-02,
       -2.59264298e-02, -3.46961878e-02, -3.18568526e-03,
       -2.61829775e-02, -1.19771650e-02, 4.99830814e-03, 2.74691731e-04,
       3.16056353e-03, -1.97131746e-02, -8.64993036e-03, -2.91433539e-02,
       -1.68687776e-02, -7.80419400e-03, 3.90183479e-02, -1.78363919e-02,
       2.21638195e-02, 1.22124618e-02, 1.47639494e-02, -4.95647953e-04,
       -1.53227793e-02, -4.00391370e-02, 5.18914275e-02, 3.85030359e-02,
       -4.26859967e-02, -1.20364130e-02, 5.61790867e-03, -1.75786410e-02,
       4.88190493e-03, -1.96766276e-02, -4.84113693e-02, 3.46288085e-02,
       2.37871222e-02, -1.69264842e-02, 2.83748447e-03, 8.50208476e-03,
       8.43120459e-03, 6.33499399e-03, -4.36729798e-03, 8.31721583e-04,
       2.57324614e-02, 4.43120860e-02, -3.47379148e-02, 1.09111462e-02,
       4.49849525e-03, -4.71416814e-03, -1.90924872e-02, -3.18237208e-02,
       -3.69319059e-02, -1.75544026e-03, -3.00902710e-03,
       -3.10006961e-02, -4.54735244e-03, 9.86878015e-03, 1.62306651e-02,
       3.12140863e-02, 1.09769003e-02, -1.78249180e-02, 4.43535224e-02,
       1.03694424e-02, -6.70901909e-02, -3.30974571e-02, -9.90537694e-04,
       9.66605544e-03, 7.42737018e-03, 1.00336242e-02, -1.68547798e-02,
       2.24913135e-02, -2.36338694e-02, 1.94030441e-02, 2.29979064e-02,
       2.96536530e-03, 1.88962985e-02, 8.91425088e-03, 2.20829551e-03,
       -1.45471049e-02, 1.04347076e-02, 2.95201819e-02, -1.40423165e-03,
       3.16578113e-02, -1.87002234e-02, 5.22010680e-03, 1.17293522e-02,
       -4.06227820e-03, -2.18470804e-02, -9.29965265e-03,
       -2.94122230e-02, -4.31098929e-03, 9.15786065e-03, 6.80387858e-03,
       2.07150355e-02, -7.15210428e-03, 5.24721900e-03, 8.38962011e-03,
       6.04239739e-02, 6.96623744e-03, 5.01050008e-03, 1.33091938e-02,
       5.05612988e-04, -1.64233632e-02, 1.20041957e-02, -9.87359416e-03,
       1.05632655e-03, 2.50855461e-02, 1.56249208e-02, 9.15310439e-03,
       3.62469144e-02, -1.02096973e-02, 4.06748010e-03, -3.22585297e-03,
       2.55718385e-03, -1.17177861e-02, -9.79132764e-03, -1.42512815e-02,
       7.16542173e-03, 2.29448359e-03, -1.38640944e-02, -6.74637686e-03,
       -5.57967136e-03, -3.14751007e-02, 1.17491893e-02, 2.85084848e-03,
       -1.06792627e-02, -2.36238800e-02, -7.51259038e-04, 1.40315958e-03,
       3.80566763e-03, -1.24188690e-02, -1.64634420e-03, -1.17175141e-02,
       3.01449429e-02, 2.79016849e-02, 5.56688663e-03, -1.14487614e-02,
       -9.87765566e-03, 2.68307924e-02, 1.18239941e-02, -3.74979875e-03,
       -1.09040672e-02, 2.45263129e-02, 3.01533379e-02, 2.70376913e-02,
       9.41764563e-03, 2.91963900e-03, -2.95221782e-03, -1.42175676e-02,
       -1.78694166e-02, -2.85101794e-02, -3.62676382e-03,
       -4.31640586e-03, 2.24421229e-02, 8.80781002e-03, 1.73161346e-02,
       1.54411271e-02, -8.70818272e-03, -6.77834265e-03, -3.26130651e-02,
       -2.33373865e-02, 2.86185509e-03, 1.72392149e-02, -5.57895517e-03,
       -9.00057796e-03, 5.07798083e-02, 3.98471206e-02, 3.75225395e-02,
       -2.12508347e-02, 1.40220504e-02, -4.15423978e-03, 8.29063763e-04,
       -1.85551662e-02, -2.15833411e-02, 1.89738087e-02, 2.58763302e-02,
       4.96274643e-02, -1.17006414e-02, 2.30141766e-02, -2.71224305e-02,
       3.89573462e-02, -1.18636461e-02, -1.84781104e-02, 7.19244452e-03,
       -5.30693540e-03, 1.79326348e-02, -1.93221848e-02, 6.49417331e-03,
       1.73097420e-02, -4.65393346e-03, -1.28346682e-02, -6.08303864e-03,
       -3.51494737e-02, 4.84335795e-03, 7.37171760e-03, -2.33468395e-02,
       1.36998165e-02, 3.81448946e-04, -1.60322934e-02, -1.58512816e-02,
       -2.92381961e-02, 2.68138517e-02, 1.26508903e-02, 2.77849473e-02,
       -2.82658711e-02, 3.79611179e-02, -4.48340736e-03, -2.03657411e-02,
       -1.86793283e-02, -1.69539712e-02, 2.95211542e-02, 9.61579324e-04,
       1.48514414e-03, -8.23379867e-03, 2.38785408e-02, -4.21760255e-04,
       -1.24809705e-02, -7.20776105e-03, 2.63011805e-03, -8.26975796e-03,
       -2.00411957e-02, 1.06051797e-02, -1.47218462e-02, -6.75906055e-03,
       1.13368835e-02, -1.80475339e-02, -2.16635987e-02, -8.72573536e-03,
       1.95993180e-03, -1.77710000e-02, -5.99909574e-04, -3.40716578e-02,
       -1.74384043e-02, 1.03936857e-02, -1.82824369e-04, 7.84716848e-03,
       1.93786668e-03, 3.87591124e-02, 1.31645771e-02, 1.65974330e-02,
       -3.59816430e-03, 3.84187549e-02, 1.49226803e-02, 8.01470596e-04,
       3.09860101e-03, 6.72372384e-03, 3.92390899e-02, 9.53785051e-03,
       2.31474545e-02, -2.19330806e-02, 2.79450715e-02, -5.90528967e-03,
       -3.51841487e-02, -4.52861888e-03, -3.01687960e-02, 8.53120908e-03,
       1.98429171e-03, -1.71251048e-03, -3.27956341e-02, 1.97220854e-02,
       -1.18465684e-02, -1.41461773e-04, -2.63042003e-03,
       -2.32967008e-02, -9.89601947e-03, -1.12671908e-02, 2.54550893e-02,
       -4.97388840e-02, -1.15820449e-02, -1.42334830e-02,
       -3.31445294e-03, -2.67790980e-03, -2.83775455e-03, 1.02274902e-02,
       1.53743085e-02, 2.71541830e-02, -1.58032496e-03, 5.78057300e-03,
       1.68574993e-02, -2.19862792e-03, 9.77557059e-03, 3.79167148e-03,
       2.82327626e-02, 6.64606085e-03, 1.16549721e-02, 9.50092357e-03,
       7.23909959e-03, 1.70485824e-02, 1.77303068e-02, -2.44291453e-03,
       -1.31440172e-02, 1.90349785e-03, 1.25590004e-02, 3.99759859e-02,
       9.93833225e-03, -1.55293262e-02, 1.23245521e-02, -3.66751365e-02,
       -1.61747653e-02, -2.94830091e-02, -2.62651853e-02,
       -2.46439275e-04, -6.99092122e-03, 5.58925932e-03, -3.30194621e-03,
       -1.62861571e-02, 5.97135862e-03, 3.68759893e-02, 1.38882836e-02,
       6.55300021e-02, 3.24103720e-02, 3.26388180e-02, 1.16224475e-02,
       1.68220196e-02, 1.74165387e-02, -1.43941650e-02, 5.66696422e-03,
       -3.82959004e-03, 1.38372192e-02, 1.14378873e-02, -2.03872532e-05,
       3.71292909e-03, -1.63913425e-03, 1.97491245e-04, -2.48379689e-02,
       1.10867042e-02, -9.46646091e-03, -2.34044306e-02, -1.72244590e-02,
       1.29180690e-02, -6.07493985e-03, -4.95665381e-03, -1.48056205e-02,
       -3.70821245e-02, -2.35100780e-02, -5.12706069e-03,
       -2.75237076e-02, -1.06738706e-03, -1.95256956e-02,
       -3.11875232e-02, -2.83075273e-02, -3.58000491e-03, 2.18443871e-02,
       2.82504000e-02, 4.76641431e-02, 6.67747110e-02, 1.70576535e-02,
       3.22711766e-02, 1.38073601e-02, 6.31770585e-03, 2.76521426e-02,
       -1.64310951e-02, -6.40790164e-03, -3.96449585e-04,
       -1.39095262e-03, -2.67345877e-03, -2.00979039e-02,
       -2.89241225e-03, -3.71641628e-02, -2.66569965e-02, 2.21679732e-02,
       4.42150561e-03, 3.27180959e-02, 2.34888680e-03, -7.78108882e-03,
       -9.40005761e-03, 1.96193485e-03, -1.27404844e-02, 3.45530473e-02,
       2.20957976e-02, -1.26411943e-02, -2.34003104e-02, -2.72079874e-02,
       -2.38790065e-02, -2.32100654e-02, -5.93475858e-03,
       -1.05281193e-02, 2.83714547e-03, 3.86333242e-02, 2.15692259e-02,
       3.30387661e-03, -9.36038978e-03, -1.76600125e-02, 2.52361428e-02,
       2.79434100e-02, -8.66056141e-03, 7.42411846e-03, 1.05455797e-02,
       -2.90019605e-02, 5.49975410e-03, 1.03484886e-02, -3.48862074e-02,
       2.82236654e-02, -3.11884228e-02, -4.86145690e-02, 5.31149469e-03,
       3.34878974e-02, 1.64355859e-02, 9.67323780e-03, 5.31759374e-02,
       -1.49503136e-02, 2.52030492e-02, 2.82768067e-02, -8.43741186e-03,
       -7.75457639e-03, 1.55591890e-02, -2.68251076e-02, -8.65267497e-03,
       1.04955556e-02, -3.16413760e-04, 4.54593264e-02, 7.42786378e-03,
       -2.98891757e-02, 2.08665561e-02, -1.64787155e-02, -7.30790605e-04,
       -2.48772441e-03, 8.18670634e-03, 4.42947634e-02, 3.13083418e-02,
       8.87410773e-04, -3.69378878e-03, 2.77916063e-02, -2.87056100e-02,
       2.06563878e-03, 1.50404545e-03, 3.01667154e-02, 1.98658127e-02,
       2.31179390e-02, 1.17629366e-02, -8.15834384e-03, 1.36828106e-02,
       3.33103091e-02, 6.72039483e-03, -3.73394950e-03, -5.01892343e-03,
       1.16241686e-02, 1.57488901e-02, -1.65736896e-03, -2.49567535e-02,
       1.43137043e-02, 6.94332318e-03, 5.78623777e-03, -1.71614427e-03,
       2.52439566e-02, -5.38269151e-03, -2.77598202e-02, 1.84322875e-02,
       1.24087150e-04, 2.04317607e-02, -2.25021318e-02, -6.48745289e-03,
       -9.92594287e-03, 8.72155186e-03, 7.22347759e-03, 1.02586476e-02,
       1.41409831e-02, -4.23661899e-03, -1.54292984e-02, 1.04618147e-02,
       -6.05320185e-03, 4.45466628e-03, 1.62113681e-02, -5.83077269e-03,
       6.76797517e-03, 9.65956692e-03, 1.50058987e-02, 2.08491869e-02,
       1.69985816e-02, 3.23442859e-03, -6.44618366e-03, -8.54814716e-04,
       1.28873112e-02, -2.74097826e-03, 1.10350195e-02, -8.12163111e-03,
       -8.69948231e-03, 2.62514711e-03, 4.86874692e-02, 4.23834892e-04,
       2.66449451e-02, 3.79837304e-03, 2.09451914e-02, 2.18009725e-02,
       -1.86610920e-03, 8.90014693e-03, -1.02803828e-02, -2.60266149e-03,
       -1.46414060e-02, -2.85654818e-03, -1.01835448e-02,
       -4.53652116e-03, 9.97532438e-03, 1.40544567e-02, -2.41366899e-04,
       -1.62877562e-03, -2.94558355e-03, 6.06113207e-03, -1.43211912e-02,
       -3.66180274e-03, -3.55307595e-03, -2.04988867e-02,
       -1.50422603e-02, 9.73305758e-03, -1.73194986e-02, 1.96889676e-02,
       1.21549759e-02, 1.36269545e-02, 1.46289617e-02, -1.22497724e-02,
       1.48569671e-02, 1.47192385e-02, 2.58716159e-02, 9.20073409e-03,
       -8.21826607e-03, 4.73118154e-03, 1.01220850e-02, 3.07491235e-02,
       6.67112693e-03, 6.07477315e-03, 7.83391017e-03, 1.99102256e-02,
       -1.21572670e-02, 7.50404829e-03, -6.34499546e-03, -2.36554146e-02,
       -9.45334788e-03, -8.23038258e-03, -6.06815657e-03,
       -3.10389604e-03, 1.31058944e-02, 3.70369200e-03, 1.88603494e-02,
       -4.32904717e-03, -1.42358011e-02, -2.61412393e-02,
       -1.03320181e-02, 2.90670106e-03, 1.04137054e-02, -4.45898157e-03,
       -2.13250965e-02, -1.70478076e-02, -1.21683478e-02, 2.05939170e-03,
       2.42021568e-02, -4.56380984e-03, -1.56793196e-03, 2.72551342e-03,
       1.94542091e-02, -9.35921073e-03, 4.53185569e-03, -2.23985016e-02,
       -1.82853844e-02, -2.59684343e-02, -1.31288171e-02,
       -3.72430612e-03, 5.80995111e-03, -1.62855666e-02, -1.45299295e-02,
       1.87259670e-02, 1.23933349e-02, 9.39286873e-03, 6.25474099e-03,
       4.00148183e-02, 1.25670759e-02, 3.00963353e-02, -1.21378703e-02,
       -5.03802896e-02, 2.20097788e-02, 8.96130106e-04, -1.07580833e-02,
       -7.27032032e-03, -2.15759641e-03, -1.18031930e-02,
       -1.03670219e-03, -4.86862808e-02, -1.36492355e-02,
       -5.01146715e-04, -2.05928497e-02, -6.98741060e-03, 9.91174602e-04,
       1.06173363e-02, -2.02893522e-02, 1.33774793e-02, -2.20070779e-02,
       1.70882605e-03, -2.68790871e-03, -1.64521802e-02, -3.21218907e-03,
       2.83357082e-03, -2.46021692e-02, -5.46876304e-02, -9.67953261e-03,
       -1.81234088e-02, -1.55371632e-02, 3.54287401e-02, 2.31149304e-03,
       2.18069162e-02, 2.63333153e-02, 3.56809236e-02, -7.37674069e-03,
       6.07017986e-03, 1.02877291e-02, 4.46988875e-03, 3.45295407e-02,
       -2.74560507e-02, -1.31518068e-02, -3.74026655e-04, 1.31773129e-02,
       -1.66278500e-02, 3.31958868e-02, -1.72209851e-02, 1.69634670e-02,
       2.53237430e-02, 1.68035179e-02, 1.10346321e-02, 2.42421478e-02,
       2.88161766e-02, -3.32795009e-02, 4.97558294e-03, 1.56696583e-03,
       -1.05486000e-02, 9.14000161e-03, -2.28124280e-02, -6.31491393e-02,
       -1.02342926e-02, -1.45818945e-03, -2.69467607e-02,
       -9.10911150e-03, -6.84940815e-03, 8.86260625e-03, 3.14391889e-02,
       1.78401126e-03, 2.71306504e-02, 1.48570621e-02, 4.17299010e-02,
       -1.74404762e-03, 6.50343532e-03, -1.26083456e-02, -3.35646346e-02,
       -1.28846914e-02, -1.11075668e-02, 2.40498371e-02, -7.74191041e-03,
       2.25069746e-02, -3.67451087e-03, -8.14393803e-04, -4.94462326e-02,
       1.36471428e-02, 2.65846457e-02, 6.17791316e-04, -1.82763357e-02,
       -3.30192479e-03, 2.64472868e-02, -4.44859779e-03, 4.26310231e-04,
       9.00283176e-03, -1.52615439e-02, 4.98895254e-03, -2.63226014e-02,
       -2.07647737e-02, -6.97065378e-03, 1.26075605e-02, -2.98716389e-02,
       -1.22796772e-02, 3.73763312e-03, 1.10487482e-02, 3.14967185e-02,
       1.14811724e-02, 2.98447292e-02, 4.15040227e-03, 2.63508838e-02,
       9.15372744e-04, 2.67366152e-02, 1.04557732e-02, 5.37831162e-04,
       1.55483112e-02, 5.38704277e-04, 1.54752121e-03, -2.44578607e-02,
       6.72752329e-04, -4.57884232e-03, -5.25246188e-03, -1.64868608e-02,
       -1.85688436e-02, 2.32798178e-02, -3.03606372e-02, -1.64718945e-02,
       -1.28850630e-02, 3.54247093e-02, -1.29713090e-02, 9.36970115e-03,
       2.23185290e-02, -2.27161292e-02, 2.10755020e-02, -2.53180824e-02,
       -1.63550545e-02, -1.14110354e-02, -8.50179885e-03,
       -1.98672283e-02, -7.20229466e-03, -2.98707164e-03, 3.00611779e-02,
       2.22409237e-03, -5.10849012e-03, 9.87848639e-03, -1.84975229e-02,
       1.32193174e-02, 1.68265998e-02, -9.95886512e-03, -7.95123819e-03,
       -6.28395646e-04, 1.25398636e-02, 8.66443478e-03, -2.40980461e-02,
       1.46921789e-02, -4.17612214e-03, 1.97615828e-02, -1.10216939e-03,
       -1.89907309e-02, 6.71064714e-03, 3.32374386e-02, -6.43883878e-03,
       1.30656529e-02, 9.17164329e-03, 7.36081973e-03, -6.10052468e-03,
       -2.04519220e-02, -3.63919400e-02, 4.26941505e-03, -6.27568550e-03,
       -2.93218140e-02, 3.75666050e-03, 1.92253944e-02, -3.68673028e-03,
       -1.17687518e-02, -1.35660861e-02, -1.79456864e-02,
       -8.96093715e-03, 2.80483067e-02, 1.11516584e-02, -4.85129608e-03,
       -4.80817305e-03, 2.31847186e-02, 3.24952928e-03, 7.77294720e-03,
       1.96764842e-02, -3.85984150e-03, 8.97109509e-03, -5.71675552e-03,
       1.78548077e-03, -1.59229711e-02, 2.49800906e-02, -1.38979508e-02,
       1.40878120e-02, -2.54917750e-03, 1.31490482e-02, -2.54349615e-02,
       -9.59343649e-03, 4.78301663e-03, -3.69566935e-03, -1.27853971e-04,
       -3.15882228e-02, -1.21369399e-02, -1.75282005e-02,
       -2.10679346e-03, -1.96878053e-02, -1.31277442e-02, 8.33811052e-03,
       2.64859442e-02, -8.63713585e-03, -4.82228845e-02, -2.67096981e-03,
       3.44511913e-03, -6.50550099e-03, 1.96204688e-02, -5.88602014e-03,
       1.67313591e-02, 1.22762946e-02, 3.34418751e-02, 5.78280538e-03,
       2.21224278e-02, 1.80193838e-02, -1.12033570e-02, 1.02213873e-02,
       -9.60235047e-05, -6.00075535e-03, -7.23277871e-03, 2.91589554e-02,
       6.24940451e-03, 8.27078521e-03, -2.05740295e-02, -5.89502649e-03,
       9.17129684e-03, 8.30591097e-03, 1.40518742e-02, 1.14151258e-02,
       2.09636111e-02, -1.49125522e-02, -1.65843479e-02, -3.25672445e-04,
       3.23290215e-03, 3.96802602e-03, -5.98917715e-03, -2.49112323e-02,
       -1.71547011e-02, -1.07952971e-02, -2.60543008e-03,
       -5.43678412e-03, -7.69677898e-03, 1.16575630e-02, 3.25336419e-02,
       2.20791586e-02, 2.14561876e-02, 1.24416081e-03, 1.72466990e-02,
       2.69564763e-02, 2.78912149e-02, 1.82120018e-02, -1.85530204e-02,
       8.75343010e-03, 5.52869681e-03, 1.54850855e-02, -2.41595553e-03,
       -2.80554406e-02, -4.50582290e-03, -1.54611925e-02,
       -4.00944054e-02, 1.00413114e-02, 3.63729335e-02, 6.47674641e-03,
       -8.60092347e-04, 3.73785896e-03, 7.59069948e-03, 1.18173668e-02,
       3.26673011e-03, -8.41405429e-03, -1.40363658e-02, 1.76359639e-02,
       -3.27259786e-02, 2.40842601e-05, -1.36568500e-02, -1.19611342e-02,
       -2.06680708e-02, -2.34748889e-02, -3.64958942e-02,
       -7.15218252e-03, 1.65818445e-02, 1.08365221e-02, 1.13699306e-02,
       3.77357118e-02, 1.51717830e-02, 1.10912453e-02, 2.48923618e-03,
       -8.05348717e-03, -1.35371275e-02, 1.10467039e-02, 4.32410985e-02,
       2.53831260e-02, 3.11810011e-03, -8.48576892e-03, 1.70235913e-02,
       2.28607766e-02, -7.96066411e-03, 9.08370316e-03, 9.31888167e-03,
       -4.42959033e-02, -1.63152022e-03, 7.67136086e-03, 2.37687398e-02,
       3.12567614e-02, 1.08420737e-02, -6.04152260e-03, -2.23588082e-03,
       4.30558249e-03, -1.33392364e-02, 3.32519412e-04, 1.69595573e-02,
       -3.48825045e-02, 2.09910925e-02, 1.00550437e-02, -2.38672793e-02,
       5.10557089e-03, 1.50268208e-02, 1.99548453e-02, 2.33313460e-02,
       -1.31149488e-02, 5.59276342e-03, 1.79558787e-02, 3.93875912e-02,
       -8.22956394e-03, -2.32134407e-04, -1.43507328e-02,
       -2.18003057e-02, 6.26403326e-03, 3.22189778e-02, 7.24822748e-04,
       3.08520384e-02, 6.74031675e-03, -1.75351091e-02, 1.05625261e-02,
       3.57045792e-02, 2.14266969e-04, 1.79766852e-04, 3.14180180e-03,
       4.05397324e-04, 5.22468425e-02, 2.90357787e-02, -2.63858307e-02,
       -2.76407900e-05, -5.93802892e-03, -2.29159016e-02, 1.22766895e-02,
       2.55871415e-02, 6.02093060e-03, 3.27229612e-02, -1.96937714e-02,
       -9.08610038e-03, 1.37601923e-02, -4.69450839e-03, -1.01148803e-02,
       4.31817435e-02, -2.11621518e-03, -7.54619716e-03, 2.09544841e-02,
       -1.79019105e-02, -2.77087223e-02, 7.47067900e-03, -3.02029569e-02,
       -2.83163670e-03, 1.12443988e-03, -1.12568326e-02, 1.37711186e-02,
       -7.87503924e-03, -3.08909994e-02, 2.37762998e-03, 2.09696013e-02,
       4.94061178e-03, -2.01920792e-02, -1.16200969e-02, -1.05832645e-03,
       1.00955730e-02, -2.43545305e-02, -3.56548578e-02, 2.73177167e-03,
       2.94166878e-02, -1.27252669e-03, -3.11155454e-03, -3.68935913e-02,
       6.19799690e-03, 2.19692308e-02, -4.02602367e-02, -5.13685904e-02,
       1.98395401e-02, -1.51373541e+00 ]
